14 10
바람 0.040816262 -0.023866678 0.017730359 0.0010089474 -0.002978482 0.049468257 0.041494805 -0.030310491 -0.0123374155 -0.012642567
나 0.014591581 -0.019037077 -0.03034626 0.048932083 -0.028184563 -0.026347572 -0.010777936 0.021233814 0.03529232 -0.044414114
별 0.040441398 0.046122737 -0.04676294 0.044298664 0.009365955 -0.025738655 -0.049570117 -0.039624844 0.03224889 0.023855345
날 -0.04568042 0.012990893 0.047521047 0.041806526 0.025312666 0.048437085 0.028544404 -0.026032124 0.037057366 0.014322908
하늘 -0.0018136384 0.013496372 0.049462497 -0.04351401 -0.0074906955 -0.008556433 0.010567362 -0.040860377 0.017073097 0.011161889
점 0.047237586 0.005264663 -0.020235388 -0.01881742 -0.016559128 -0.03256629 -0.04248252 0.0032000884 -0.04279289 -0.0055728294
부끄럼 -0.035913393 0.01515013 -0.015950097 0.03751414 0.04325887 -0.03232118 -0.0101614585 -0.0054663788 -0.0033748366 -0.0383652
잎새 -0.030114539 0.041953016 -0.03936826 0.00680034 -0.009952852 0.01396377 0.021343816 0.014305981 0.02378741 -0.0017611467
노래 -0.019967409 -0.029829573 0.02123159 0.0024792538 0.013678568 -0.0123775825 0.03207206 0.011990526 0.015233553 0.00279799
마음 -0.037853576 -0.049834784 0.044990532 0.03339782 -0.02829902 -0.031993814 -0.02346776 0.03684454 0.007426783 0.023085602
것 0.006551794 -0.03597372 -0.045439936 -0.013163558 -0.049369317 -0.04079878 -0.03517791 -0.018646084 0.03315093 -0.021029435
사랑 0.015356696 -0.012169391 0.005284811 -0.044408802 -0.02151678 -0.021582417 -0.0018874161 0.019605523 -0.019605862 -0.011979062
길 0.039357245 -0.03972461 -0.033978723 0.024644334 0.028074669 -0.022639992 -0.025981104 0.02405826 0.010450191 -0.0038684737
밤 0.014083672 -0.0257319 0.024375236 -0.011303442 0.009976049 -0.026920669 -0.0066656554 0.03665771 -0.030122202 0.022633657
